<?xml version="1.0"?>
<opencv_storage>
<stage3>
  <maxWeakCount>12</maxWeakCount>
  <stageThreshold>-1.0046960115432739e+00</stageThreshold>
  <weakClassifiers>
    <_>
      <internalNodes>
        0 -1 22302 2.4458296597003937e-02</internalNodes>
      <leafValues>
        -2.4882629513740540e-01 6.0173159837722778e-01</leafValues></_>
    <_>
      <internalNodes>
        0 -1 1486 1.6391351819038391e-02</internalNodes>
      <leafValues>
        -3.7575635313987732e-01 4.8865857720375061e-01</leafValues></_>
    <_>
      <internalNodes>
        0 -1 23408 -8.1397816538810730e-03</internalNodes>
      <leafValues>
        4.3901738524436951e-01 -3.9210459589958191e-01</leafValues></_>
    <_>
      <internalNodes>
        0 -1 49867 7.7890763059258461e-03</internalNodes>
      <leafValues>
        -2.5204691290855408e-01 6.8665915727615356e-01</leafValues></_>
    <_>
      <internalNodes>
        0 -1 78002 -1.6037063673138618e-02</internalNodes>
      <leafValues>
        5.0571507215499878e-01 -4.2663466930389404e-01</leafValues></_>
    <_>
      <internalNodes>
        0 -1 11263 -3.0510653741657734e-03</internalNodes>
      <leafValues>
        3.9734056591987610e-01 -4.0474179387092590e-01</leafValues></_>
    <_>
      <internalNodes>
        0 -1 17357 -1.7834048718214035e-02</internalNodes>
      <leafValues>
        3.8716322183609009e-01 -3.9635089039802551e-01</leafValues></_>
    <_>
      <internalNodes>
        0 -1 8234 1.3928062282502651e-02</internalNodes>
      <leafValues>
        -2.7402353286743164e-01 5.1778119802474976e-01</leafValues></_>
    <_>
      <internalNodes>
        0 -1 76202 1.2535608839243650e-03</internalNodes>
      <leafValues>
        -4.0733775496482849e-01 3.7688174843788147e-01</leafValues></_>
    <_>
      <internalNodes>
        0 -1 51842 3.4629772417247295e-03</internalNodes>
      <leafValues>
        -5.0638389587402344e-01 3.0366709828376770e-01</leafValues></_>
    <_>
      <internalNodes>
        0 -1 44979 1.6013137996196747e-02</internalNodes>
      <leafValues>
        -2.1231952309608459e-01 7.3335456848144531e-01</leafValues></_>
    <_>
      <internalNodes>
        0 -1 74681 2.3444506805390120e-03</internalNodes>
      <leafValues>
        -2.7252385020256042e-01 4.4770723581314087e-01</leafValues></_></weakClassifiers></stage3>
</opencv_storage>
