<?xml version="1.0"?>
<opencv_storage>
<stage5>
  <maxWeakCount>18</maxWeakCount>
  <stageThreshold>-1.2878782749176025e+00</stageThreshold>
  <weakClassifiers>
    <_>
      <internalNodes>
        0 -1 2771 9.2010544613003731e-03</internalNodes>
      <leafValues>
        -2.4174372851848602e-01 5.5738550424575806e-01</leafValues></_>
    <_>
      <internalNodes>
        0 -1 77302 7.9117901623249054e-03</internalNodes>
      <leafValues>
        -2.3695279657840729e-01 6.0246211290359497e-01</leafValues></_>
    <_>
      <internalNodes>
        0 -1 49684 7.1606468409299850e-03</internalNodes>
      <leafValues>
        -3.3146035671234131e-01 4.4450321793556213e-01</leafValues></_>
    <_>
      <internalNodes>
        0 -1 76121 5.6098648346960545e-03</internalNodes>
      <leafValues>
        -3.3522656559944153e-01 4.3647888302803040e-01</leafValues></_>
    <_>
      <internalNodes>
        0 -1 38153 4.6938396990299225e-03</internalNodes>
      <leafValues>
        -4.2903330922126770e-01 2.9629102349281311e-01</leafValues></_>
    <_>
      <internalNodes>
        0 -1 56247 1.6879817470908165e-02</internalNodes>
      <leafValues>
        -5.6134450435638428e-01 2.0022431015968323e-01</leafValues></_>
    <_>
      <internalNodes>
        0 -1 29088 1.0848466306924820e-02</internalNodes>
      <leafValues>
        -3.3650699257850647e-01 3.0190366506576538e-01</leafValues></_>
    <_>
      <internalNodes>
        0 -1 74936 -2.3939842358231544e-03</internalNodes>
      <leafValues>
        3.2412323355674744e-01 -3.1668049097061157e-01</leafValues></_>
    <_>
      <internalNodes>
        0 -1 14739 -1.2838769704103470e-02</internalNodes>
      <leafValues>
        4.9748849868774414e-01 -2.8108257055282593e-01</leafValues></_>
    <_>
      <internalNodes>
        0 -1 13305 7.5392244616523385e-04</internalNodes>
      <leafValues>
        -2.5664046406745911e-01 3.7667936086654663e-01</leafValues></_>
    <_>
      <internalNodes>
        0 -1 22561 -3.1861931085586548e-02</internalNodes>
      <leafValues>
        4.1354447603225708e-01 -2.3532137274742126e-01</leafValues></_>
    <_>
      <internalNodes>
        0 -1 18337 -3.8936343044042587e-03</internalNodes>
      <leafValues>
        3.3602374792098999e-01 -3.0170309543609619e-01</leafValues></_>
    <_>
      <internalNodes>
        0 -1 74190 2.6725061237812042e-02</internalNodes>
      <leafValues>
        -3.0302512645721436e-01 3.2709053158760071e-01</leafValues></_>
    <_>
      <internalNodes>
        0 -1 63390 3.0928291380405426e-03</internalNodes>
      <leafValues>
        -2.9801863431930542e-01 3.1070715188980103e-01</leafValues></_>
    <_>
      <internalNodes>
        0 -1 27759 -9.5830895006656647e-03</internalNodes>
      <leafValues>
        2.2486756742000580e-01 -4.3304350972175598e-01</leafValues></_>
    <_>
      <internalNodes>
        0 -1 20936 -2.3273628205060959e-02</internalNodes>
      <leafValues>
        6.3934266567230225e-01 -1.5553751587867737e-01</leafValues></_>
    <_>
      <internalNodes>
        0 -1 660 1.4901094138622284e-02</internalNodes>
      <leafValues>
        -2.2389790415763855e-01 4.3442130088806152e-01</leafValues></_>
    <_>
      <internalNodes>
        0 -1 72683 1.0519179049879313e-03</internalNodes>
      <leafValues>
        -2.5277602672576904e-01 4.1356861591339111e-01</leafValues></_></weakClassifiers></stage5>
</opencv_storage>
